Language model created by QuickLM on Sun Feb 11 15:24:33 EST 2018
Copyright (c) 1996-2010 Carnegie Mellon University and Alexander I. Rudnicky

The model is in standard ARPA format, designed by Doug Paul while he was at MITRE.

The code that was used to produce this language model is available in Open Source.
Please visit http://www.speech.cs.cmu.edu/tools/ for more information

The (fixed) discount mass is 0.5. The backoffs are computed using the ratio method.
This model based on a corpus of 29 sentences and 31 words

\data\
ngram 1=31
ngram 2=58
ngram 3=29

\1-grams:
-0.7782 </s> -0.3010
-0.7782 <s> -0.2218
-2.2405 BOUWKI -0.2218
-2.2405 DROUB -0.2218
-2.2405 GOTOVAIH -0.2218
-2.2405 HLEB -0.2218
-2.2405 KNOTAUTHTKA -0.2218
-2.2405 KRYSHA -0.2218
-2.2405 MAJIK -0.2218
-2.2405 MASUO -0.2218
-2.2405 MLEKO -0.2218
-2.2405 NITZ -0.2218
-2.2405 OOSOUN -0.2218
-2.2405 OVOTZE -0.2218
-2.2405 POKASH -0.2218
-2.2405 POMUSH -0.2218
-2.2405 POVIETZ -0.2218
-2.2405 PSHIPRAVA -0.2218
-2.2405 SER -0.2218
-2.2405 SUAVJIK -0.2218
-2.2405 VICKONAI -0.2218
-2.2405 VIEHPSHOVINA -0.2218
-2.2405 VITCISHTCH -0.2218
-2.2405 VODA -0.2218
-2.2405 VOUOVINA -0.2218
-2.2405 VROOTCH -0.2218
-2.2405 WAUCOTCHIA -0.2218
-2.2405 YAYA -0.2218
-2.2405 ZAKOOPEI -0.2218
-2.2405 ZAPISH -0.2218
-2.2405 ZIOUAH -0.2218

\2-grams:
-1.7634 <s> BOUWKI 0.0000
-1.7634 <s> DROUB 0.0000
-1.7634 <s> GOTOVAIH 0.0000
-1.7634 <s> HLEB 0.0000
-1.7634 <s> KNOTAUTHTKA 0.0000
-1.7634 <s> KRYSHA 0.0000
-1.7634 <s> MAJIK 0.0000
-1.7634 <s> MASUO 0.0000
-1.7634 <s> MLEKO 0.0000
-1.7634 <s> NITZ 0.0000
-1.7634 <s> OOSOUN 0.0000
-1.7634 <s> OVOTZE 0.0000
-1.7634 <s> POKASH 0.0000
-1.7634 <s> POMUSH 0.0000
-1.7634 <s> POVIETZ 0.0000
-1.7634 <s> PSHIPRAVA 0.0000
-1.7634 <s> SER 0.0000
-1.7634 <s> SUAVJIK 0.0000
-1.7634 <s> VICKONAI 0.0000
-1.7634 <s> VIEHPSHOVINA 0.0000
-1.7634 <s> VITCISHTCH 0.0000
-1.7634 <s> VODA 0.0000
-1.7634 <s> VOUOVINA 0.0000
-1.7634 <s> VROOTCH 0.0000
-1.7634 <s> WAUCOTCHIA 0.0000
-1.7634 <s> YAYA 0.0000
-1.7634 <s> ZAKOOPEI 0.0000
-1.7634 <s> ZAPISH 0.0000
-1.7634 <s> ZIOUAH 0.0000
-0.3010 BOUWKI </s> -0.3010
-0.3010 DROUB </s> -0.3010
-0.3010 GOTOVAIH </s> -0.3010
-0.3010 HLEB </s> -0.3010
-0.3010 KNOTAUTHTKA </s> -0.3010
-0.3010 KRYSHA </s> -0.3010
-0.3010 MAJIK </s> -0.3010
-0.3010 MASUO </s> -0.3010
-0.3010 MLEKO </s> -0.3010
-0.3010 NITZ </s> -0.3010
-0.3010 OOSOUN </s> -0.3010
-0.3010 OVOTZE </s> -0.3010
-0.3010 POKASH </s> -0.3010
-0.3010 POMUSH </s> -0.3010
-0.3010 POVIETZ </s> -0.3010
-0.3010 PSHIPRAVA </s> -0.3010
-0.3010 SER </s> -0.3010
-0.3010 SUAVJIK </s> -0.3010
-0.3010 VICKONAI </s> -0.3010
-0.3010 VIEHPSHOVINA </s> -0.3010
-0.3010 VITCISHTCH </s> -0.3010
-0.3010 VODA </s> -0.3010
-0.3010 VOUOVINA </s> -0.3010
-0.3010 VROOTCH </s> -0.3010
-0.3010 WAUCOTCHIA </s> -0.3010
-0.3010 YAYA </s> -0.3010
-0.3010 ZAKOOPEI </s> -0.3010
-0.3010 ZAPISH </s> -0.3010
-0.3010 ZIOUAH </s> -0.3010

\3-grams:
-0.3010 <s> BOUWKI </s>
-0.3010 <s> DROUB </s>
-0.3010 <s> GOTOVAIH </s>
-0.3010 <s> HLEB </s>
-0.3010 <s> KNOTAUTHTKA </s>
-0.3010 <s> KRYSHA </s>
-0.3010 <s> MAJIK </s>
-0.3010 <s> MASUO </s>
-0.3010 <s> MLEKO </s>
-0.3010 <s> NITZ </s>
-0.3010 <s> OOSOUN </s>
-0.3010 <s> OVOTZE </s>
-0.3010 <s> POKASH </s>
-0.3010 <s> POMUSH </s>
-0.3010 <s> POVIETZ </s>
-0.3010 <s> PSHIPRAVA </s>
-0.3010 <s> SER </s>
-0.3010 <s> SUAVJIK </s>
-0.3010 <s> VICKONAI </s>
-0.3010 <s> VIEHPSHOVINA </s>
-0.3010 <s> VITCISHTCH </s>
-0.3010 <s> VODA </s>
-0.3010 <s> VOUOVINA </s>
-0.3010 <s> VROOTCH </s>
-0.3010 <s> WAUCOTCHIA </s>
-0.3010 <s> YAYA </s>
-0.3010 <s> ZAKOOPEI </s>
-0.3010 <s> ZAPISH </s>
-0.3010 <s> ZIOUAH </s>

\end\
