Language model created by QuickLM on Mon Jul  9 16:25:23 EDT 2018
Copyright (c) 1996-2010 Carnegie Mellon University and Alexander I. Rudnicky

The model is in standard ARPA format, designed by Doug Paul while he was at MITRE.

The code that was used to produce this language model is available in Open Source.
Please visit http://www.speech.cs.cmu.edu/tools/ for more information

The (fixed) discount mass is 0.5. The backoffs are computed using the ratio method.
This model based on a corpus of 33 sentences and 34 words

\data\
ngram 1=34
ngram 2=64
ngram 3=32

\1-grams:
-0.7782 </s> -0.3010
-0.7782 <s> -0.2218
-2.2967 BOUWKI -0.2218
-2.2967 DROUB -0.2218
-2.2967 GOTOVAIH -0.2218
-2.2967 HLEB -0.2218
-2.2967 KNOTAUTHTKA -0.2218
-2.2967 KRYSHA -0.2218
-2.2967 MAJIK -0.2218
-2.2967 MASUO -0.2218
-2.2967 MLEKO -0.2218
-2.2967 NIEUH -0.2218
-2.2967 NITZ -0.2218
-2.2967 OOSOUN -0.2218
-2.2967 OVOTZE -0.2218
-2.2967 POKASH -0.2218
-2.2967 POMUSH -0.2218
-2.2967 POVIETZ -0.2218
-2.2967 PSHIPRAVA -0.2218
-2.2967 RESET -0.2218
-2.2967 SER -0.2218
-2.2967 SUAVJIK -0.2218
-1.9956 TACK -0.2218
-2.2967 VICKONAI -0.2218
-2.2967 VIEHPSHOVINA -0.2218
-2.2967 VITCISHTCH -0.2218
-2.2967 VODA -0.2218
-2.2967 VOUOVINA -0.2218
-2.2967 VROOTCH -0.2218
-2.2967 WAUCOTCHIA -0.2218
-2.2967 YAYA -0.2218
-2.2967 ZAKOOPEI -0.2218
-2.2967 ZAPISH -0.2218
-2.2967 ZIOUAH -0.2218

\2-grams:
-1.8195 <s> BOUWKI 0.0000
-1.8195 <s> DROUB 0.0000
-1.8195 <s> GOTOVAIH 0.0000
-1.8195 <s> HLEB 0.0000
-1.8195 <s> KNOTAUTHTKA 0.0000
-1.8195 <s> KRYSHA 0.0000
-1.8195 <s> MAJIK 0.0000
-1.8195 <s> MASUO 0.0000
-1.8195 <s> MLEKO 0.0000
-1.8195 <s> NIEUH 0.0000
-1.8195 <s> NITZ 0.0000
-1.8195 <s> OOSOUN 0.0000
-1.8195 <s> OVOTZE 0.0000
-1.8195 <s> POKASH 0.0000
-1.8195 <s> POMUSH 0.0000
-1.8195 <s> POVIETZ 0.0000
-1.8195 <s> PSHIPRAVA 0.0000
-1.8195 <s> RESET 0.0000
-1.8195 <s> SER 0.0000
-1.8195 <s> SUAVJIK 0.0000
-1.5185 <s> TACK 0.0000
-1.8195 <s> VICKONAI 0.0000
-1.8195 <s> VIEHPSHOVINA 0.0000
-1.8195 <s> VITCISHTCH 0.0000
-1.8195 <s> VODA 0.0000
-1.8195 <s> VOUOVINA 0.0000
-1.8195 <s> VROOTCH 0.0000
-1.8195 <s> WAUCOTCHIA 0.0000
-1.8195 <s> YAYA 0.0000
-1.8195 <s> ZAKOOPEI 0.0000
-1.8195 <s> ZAPISH 0.0000
-1.8195 <s> ZIOUAH 0.0000
-0.3010 BOUWKI </s> -0.3010
-0.3010 DROUB </s> -0.3010
-0.3010 GOTOVAIH </s> -0.3010
-0.3010 HLEB </s> -0.3010
-0.3010 KNOTAUTHTKA </s> -0.3010
-0.3010 KRYSHA </s> -0.3010
-0.3010 MAJIK </s> -0.3010
-0.3010 MASUO </s> -0.3010
-0.3010 MLEKO </s> -0.3010
-0.3010 NIEUH </s> -0.3010
-0.3010 NITZ </s> -0.3010
-0.3010 OOSOUN </s> -0.3010
-0.3010 OVOTZE </s> -0.3010
-0.3010 POKASH </s> -0.3010
-0.3010 POMUSH </s> -0.3010
-0.3010 POVIETZ </s> -0.3010
-0.3010 PSHIPRAVA </s> -0.3010
-0.3010 RESET </s> -0.3010
-0.3010 SER </s> -0.3010
-0.3010 SUAVJIK </s> -0.3010
-0.3010 TACK </s> -0.3010
-0.3010 VICKONAI </s> -0.3010
-0.3010 VIEHPSHOVINA </s> -0.3010
-0.3010 VITCISHTCH </s> -0.3010
-0.3010 VODA </s> -0.3010
-0.3010 VOUOVINA </s> -0.3010
-0.3010 VROOTCH </s> -0.3010
-0.3010 WAUCOTCHIA </s> -0.3010
-0.3010 YAYA </s> -0.3010
-0.3010 ZAKOOPEI </s> -0.3010
-0.3010 ZAPISH </s> -0.3010
-0.3010 ZIOUAH </s> -0.3010

\3-grams:
-0.3010 <s> BOUWKI </s>
-0.3010 <s> DROUB </s>
-0.3010 <s> GOTOVAIH </s>
-0.3010 <s> HLEB </s>
-0.3010 <s> KNOTAUTHTKA </s>
-0.3010 <s> KRYSHA </s>
-0.3010 <s> MAJIK </s>
-0.3010 <s> MASUO </s>
-0.3010 <s> MLEKO </s>
-0.3010 <s> NIEUH </s>
-0.3010 <s> NITZ </s>
-0.3010 <s> OOSOUN </s>
-0.3010 <s> OVOTZE </s>
-0.3010 <s> POKASH </s>
-0.3010 <s> POMUSH </s>
-0.3010 <s> POVIETZ </s>
-0.3010 <s> PSHIPRAVA </s>
-0.3010 <s> RESET </s>
-0.3010 <s> SER </s>
-0.3010 <s> SUAVJIK </s>
-0.3010 <s> TACK </s>
-0.3010 <s> VICKONAI </s>
-0.3010 <s> VIEHPSHOVINA </s>
-0.3010 <s> VITCISHTCH </s>
-0.3010 <s> VODA </s>
-0.3010 <s> VOUOVINA </s>
-0.3010 <s> VROOTCH </s>
-0.3010 <s> WAUCOTCHIA </s>
-0.3010 <s> YAYA </s>
-0.3010 <s> ZAKOOPEI </s>
-0.3010 <s> ZAPISH </s>
-0.3010 <s> ZIOUAH </s>

\end\
